{"layers": [2, 10, 5, 1], "weights": [[[-1.5421892812582827, -5.050231287389737], [0.15488611636146726, -0.5629533248160057], [-1.0212714447781657, 0.6873274254758615], [-3.666828562211667, -1.7391684076289724], [1.2354083938714477, -0.968215535639807], [1.3834739354746883, -2.043482739404835], [2.724684645279983, -2.191367745277682], [0.21869215940443323, -0.5416377037790713], [-2.6249109365727143, 0.22207704577682627], [-1.965847133213029, 3.17467958258122]], [[5.542029508154988, -0.5852200368093919, 0.5852767498844617, -4.469495466653281, -2.592562506915852, 0.6384478934815625, 0.994057942176701, 0.6298422270026708, 2.323744783193178, 3.8895291852185956], [-0.14213257871233587, -0.44382832819453194, -0.036523443226715586, 0.2622946465180227, -0.4024308052840908, 0.9894924271821984, -0.6149865248283451, -0.46502636569104294, -0.14642152553813478, 0.40466570124210033], [1.9596211114865436, 0.3952634783065782, -1.8655826952331318, -4.023788680564234, 1.9077450509129612, 2.5717801266494416, 2.7044959387983054, 1.0868882101773072, -1.9819111455940617, 0.19742221713226943], [-3.118538459742221, -0.4046086052255137, -0.8797792206553904, 2.223541441957675, -0.9442539169505764, -0.1309389410277426, -1.19572826467989, 1.6530889872260075, -2.439495530736722, -1.6228208339409047], [-1.836483218444178, 1.3435264377938785, 1.2049935499873068, -0.0748356735620549, 0.8265899784414458, 1.353061817339732, -1.2874542417518084, -1.4663784819055607, -1.0154849333674936, -1.9669556448542795]], [[4.898171150080902, -0.4308111078125209, 4.966977342890808, -2.832818131455496, -1.3083551764543395]]], "biases": [[[-3.407513033861041], [-0.40320559632009345], [-1.0689380133236475], [3.326123320191871], [-0.34734797319136285], [-1.7881696782653635], [-2.5914472216213014], [-1.6779614131586977], [-3.122283447524551], [-3.2856001388783262]], [[0.35828394889850285], [-2.6755929824221534], [-1.691055416187611], [0.23609621072992848], [-1.3697049524134874]], [[-1.0741714045552286]]]}